<?xml version="1.0"?>
<opencv_storage>
<cascade>
  <stageType>BOOST</stageType>
  <featureType>HAAR</featureType>
  <height>40</height>
  <width>40</width>
  <stageParams>
    <boostType>GAB</boostType>
    <minHitRate>9.9500000476837158e-01</minHitRate>
    <maxFalseAlarm>5.0000000000000000e-01</maxFalseAlarm>
    <weightTrimRate>9.4999998807907104e-01</weightTrimRate>
    <maxDepth>1</maxDepth>
    <maxWeakCount>100</maxWeakCount></stageParams>
  <featureParams>
    <maxCatCount>0</maxCatCount>
    <featSize>1</featSize>
    <mode>BASIC</mode></featureParams>
  <stageNum>5</stageNum>
  <stages>
    <!-- stage 0 -->
    <_>
      <maxWeakCount>6</maxWeakCount>
      <stageThreshold>-8.7241095304489136e-01</stageThreshold>
      <weakClassifiers>
        <_>
          <internalNodes>
            0 -1 29 5.9298507403582335e-04</internalNodes>
          <leafValues>
            5.7505774497985840e-01 -6.3529413938522339e-01</leafValues></_>
        <_>
          <internalNodes>
            0 -1 7 2.7512844651937485e-02</internalNodes>
          <leafValues>
            6.5826487541198730e-01 -4.8979893326759338e-01</leafValues></_>
        <_>
          <internalNodes>
            0 -1 13 4.0928460657596588e-02</internalNodes>
          <leafValues>
            -3.5240074992179871e-01 7.7723634243011475e-01</leafValues></_>
        <_>
          <internalNodes>
            0 -1 4 1.0973161086440086e-02</internalNodes>
          <leafValues>
            9.0021854639053345e-01 -2.6665189862251282e-01</leafValues></_>
        <_>
          <internalNodes>
            0 -1 14 -1.6122196102514863e-03</internalNodes>
          <leafValues>
            -5.7539743185043335e-01 4.0103191137313843e-01</leafValues></_>
        <_>
          <internalNodes>
            0 -1 8 3.1603097449988127e-03</internalNodes>
          <leafValues>
            4.7070282697677612e-01 -4.3491140007972717e-01</leafValues></_></weakClassifiers></_>
    <!-- stage 1 -->
    <_>
      <maxWeakCount>9</maxWeakCount>
      <stageThreshold>-1.1389410495758057e+00</stageThreshold>
      <weakClassifiers>
        <_>
          <internalNodes>
            0 -1 1 -1.8168203532695770e-02</internalNodes>
          <leafValues>
            -3.4733894467353821e-01 7.5545853376388550e-01</leafValues></_>
        <_>
          <internalNodes>
            0 -1 24 1.6617462038993835e-02</internalNodes>
          <leafValues>
            -2.9772347211837769e-01 7.3508447408676147e-01</leafValues></_>
        <_>
          <internalNodes>
            0 -1 2 2.5770869106054306e-02</internalNodes>
          <leafValues>
            8.4993213415145874e-01 -2.0227569341659546e-01</leafValues></_>
        <_>
          <internalNodes>
            0 -1 26 2.0599125418812037e-03</internalNodes>
          <leafValues>
            -2.3936231434345245e-01 7.0627880096435547e-01</leafValues></_>
        <_>
          <internalNodes>
            0 -1 16 1.9073408329859376e-03</internalNodes>
          <leafValues>
            4.1757792234420776e-01 -5.3222709894180298e-01</leafValues></_>
        <_>
          <internalNodes>
            0 -1 10 -3.0327215790748596e-02</internalNodes>
          <leafValues>
            -5.2600640058517456e-01 3.8670274615287781e-01</leafValues></_>
        <_>
          <internalNodes>
            0 -1 5 3.0736983171664178e-04</internalNodes>
          <leafValues>
            5.4585850238800049e-01 -3.4132108092308044e-01</leafValues></_>
        <_>
          <internalNodes>
            0 -1 11 1.8538944423198700e-03</internalNodes>
          <leafValues>
            7.8990590572357178e-01 -2.7415263652801514e-01</leafValues></_>
        <_>
          <internalNodes>
            0 -1 34 -3.2634389935992658e-04</internalNodes>
          <leafValues>
            8.4953701496124268e-01 -2.1551795303821564e-01</leafValues></_></weakClassifiers></_>
    <!-- stage 2 -->
    <_>
      <maxWeakCount>8</maxWeakCount>
      <stageThreshold>-9.0535551309585571e-01</stageThreshold>
      <weakClassifiers>
        <_>
          <internalNodes>
            0 -1 20 2.4347718805074692e-02</internalNodes>
          <leafValues>
            -3.1739708781242371e-01 8.6315786838531494e-01</leafValues></_>
        <_>
          <internalNodes>
            0 -1 9 1.9438420422375202e-03</internalNodes>
          <leafValues>
            1. -1.8464906513690948e-01</leafValues></_>
        <_>
          <internalNodes>
            0 -1 19 1.7180116847157478e-02</internalNodes>
          <leafValues>
            4.6300280094146729e-01 -4.7997933626174927e-01</leafValues></_>
        <_>
          <internalNodes>
            0 -1 18 -5.6286212056875229e-03</internalNodes>
          <leafValues>
            6.8657374382019043e-01 -3.4432160854339600e-01</leafValues></_>
        <_>
          <internalNodes>
            0 -1 31 5.7769429986365139e-05</internalNodes>
          <leafValues>
            7.1078062057495117e-01 -2.6670336723327637e-01</leafValues></_>
        <_>
          <internalNodes>
            0 -1 17 2.1765581332147121e-03</internalNodes>
          <leafValues>
            3.9918637275695801e-01 -5.7682549953460693e-01</leafValues></_>
        <_>
          <internalNodes>
            0 -1 0 9.3404040671885014e-04</internalNodes>
          <leafValues>
            -2.2851087152957916e-01 8.7116509675979614e-01</leafValues></_>
        <_>
          <internalNodes>
            0 -1 28 -7.1840640157461166e-04</internalNodes>
          <leafValues>
            -4.2596271634101868e-01 5.3511822223663330e-01</leafValues></_></weakClassifiers></_>
    <!-- stage 3 -->
    <_>
      <maxWeakCount>8</maxWeakCount>
      <stageThreshold>-8.9844787120819092e-01</stageThreshold>
      <weakClassifiers>
        <_>
          <internalNodes>
            0 -1 12 -9.0131498873233795e-03</internalNodes>
          <leafValues>
            -5.2014011144638062e-01 5.9677422046661377e-01</leafValues></_>
        <_>
          <internalNodes>
            0 -1 25 6.4121332252398133e-04</internalNodes>
          <leafValues>
            5.3056353330612183e-01 -5.9925055503845215e-01</leafValues></_>
        <_>
          <internalNodes>
            0 -1 33 2.5547291152179241e-03</internalNodes>
          <leafValues>
            6.4766693115234375e-01 -4.2495992779731750e-01</leafValues></_>
        <_>
          <internalNodes>
            0 -1 22 5.0164388085249811e-05</internalNodes>
          <leafValues>
            7.3458510637283325e-01 -3.5544961690902710e-01</leafValues></_>
        <_>
          <internalNodes>
            0 -1 32 1.1000644735759124e-04</internalNodes>
          <leafValues>
            8.4023457765579224e-01 -3.1486147642135620e-01</leafValues></_>
        <_>
          <internalNodes>
            0 -1 3 2.0514812786132097e-04</internalNodes>
          <leafValues>
            -2.5555244088172913e-01 9.0832722187042236e-01</leafValues></_>
        <_>
          <internalNodes>
            0 -1 27 -8.4342638729140162e-05</internalNodes>
          <leafValues>
            9.0772098302841187e-01 -2.5807121396064758e-01</leafValues></_>
        <_>
          <internalNodes>
            0 -1 6 3.6611669929698110e-04</internalNodes>
          <leafValues>
            7.1550631523132324e-01 -3.7260344624519348e-01</leafValues></_></weakClassifiers></_>
    <!-- stage 4 -->
    <_>
      <maxWeakCount>4</maxWeakCount>
      <stageThreshold>-8.4585589170455933e-01</stageThreshold>
      <weakClassifiers>
        <_>
          <internalNodes>
            0 -1 23 -6.3660251908004284e-04</internalNodes>
          <leafValues>
            -7.6736110448837280e-01 1.</leafValues></_>
        <_>
          <internalNodes>
            0 -1 30 9.4491243362426758e-04</internalNodes>
          <leafValues>
            1. -5.5956512689590454e-01</leafValues></_>
        <_>
          <internalNodes>
            0 -1 21 -1.1655559763312340e-02</internalNodes>
          <leafValues>
            -5.1892966032028198e-01 1.</leafValues></_>
        <_>
          <internalNodes>
            0 -1 15 1.1640768498182297e-02</internalNodes>
          <leafValues>
            1. -4.9696674942970276e-01</leafValues></_></weakClassifiers></_></stages>
  <features>
    <_>
      <rects>
        <_>
          2 25 12 4 -1.</_>
        <_>
          2 25 6 2 2.</_>
        <_>
          8 27 6 2 2.</_></rects>
      <tilted>0</tilted></_>
    <_>
      <rects>
        <_>
          4 11 29 9 -1.</_>
        <_>
          4 14 29 3 3.</_></rects>
      <tilted>0</tilted></_>
    <_>
      <rects>
        <_>
          6 14 13 18 -1.</_>
        <_>
          6 20 13 6 3.</_></rects>
      <tilted>0</tilted></_>
    <_>
      <rects>
        <_>
          7 24 7 3 -1.</_>
        <_>
          7 25 7 1 3.</_></rects>
      <tilted>0</tilted></_>
    <_>
      <rects>
        <_>
          8 15 18 10 -1.</_>
        <_>
          8 20 18 5 2.</_></rects>
      <tilted>0</tilted></_>
    <_>
      <rects>
        <_>
          8 21 6 5 -1.</_>
        <_>
          10 21 2 5 3.</_></rects>
      <tilted>0</tilted></_>
    <_>
      <rects>
        <_>
          8 22 6 4 -1.</_>
        <_>
          10 22 2 4 3.</_></rects>
      <tilted>0</tilted></_>
    <_>
      <rects>
        <_>
          9 11 21 6 -1.</_>
        <_>
          16 11 7 6 3.</_></rects>
      <tilted>0</tilted></_>
    <_>
      <rects>
        <_>
          9 30 8 8 -1.</_>
        <_>
          9 30 4 4 2.</_>
        <_>
          13 34 4 4 2.</_></rects>
      <tilted>0</tilted></_>
    <_>
      <rects>
        <_>
          10 13 2 10 -1.</_>
        <_>
          10 18 2 5 2.</_></rects>
      <tilted>0</tilted></_>
    <_>
      <rects>
        <_>
          11 9 22 6 -1.</_>
        <_>
          11 12 22 3 2.</_></rects>
      <tilted>0</tilted></_>
    <_>
      <rects>
        <_>
          11 17 22 8 -1.</_>
        <_>
          11 21 22 4 2.</_></rects>
      <tilted>0</tilted></_>
    <_>
      <rects>
        <_>
          12 20 17 18 -1.</_>
        <_>
          12 26 17 6 3.</_></rects>
      <tilted>0</tilted></_>
    <_>
      <rects>
        <_>
          13 6 13 30 -1.</_>
        <_>
          13 21 13 15 2.</_></rects>
      <tilted>0</tilted></_>
    <_>
      <rects>
        <_>
          13 19 4 8 -1.</_>
        <_>
          15 19 2 8 2.</_></rects>
      <tilted>0</tilted></_>
    <_>
      <rects>
        <_>
          14 15 10 9 -1.</_>
        <_>
          14 18 10 3 3.</_></rects>
      <tilted>0</tilted></_>
    <_>
      <rects>
        <_>
          14 30 6 10 -1.</_>
        <_>
          14 35 6 5 2.</_></rects>
      <tilted>0</tilted></_>
    <_>
      <rects>
        <_>
          14 32 11 6 -1.</_>
        <_>
          14 35 11 3 2.</_></rects>
      <tilted>0</tilted></_>
    <_>
      <rects>
        <_>
          15 3 22 15 -1.</_>
        <_>
          15 8 22 5 3.</_></rects>
      <tilted>0</tilted></_>
    <_>
      <rects>
        <_>
          15 14 9 25 -1.</_>
        <_>
          18 14 3 25 3.</_></rects>
      <tilted>0</tilted></_>
    <_>
      <rects>
        <_>
          15 18 22 18 -1.</_>
        <_>
          15 24 22 6 3.</_></rects>
      <tilted>0</tilted></_>
    <_>
      <rects>
        <_>
          15 27 25 12 -1.</_>
        <_>
          15 31 25 4 3.</_></rects>
      <tilted>0</tilted></_>
    <_>
      <rects>
        <_>
          16 37 4 2 -1.</_>
        <_>
          18 37 2 2 2.</_></rects>
      <tilted>0</tilted></_>
    <_>
      <rects>
        <_>
          17 25 8 2 -1.</_>
        <_>
          17 25 4 1 2.</_>
        <_>
          21 26 4 1 2.</_></rects>
      <tilted>0</tilted></_>
    <_>
      <rects>
        <_>
          18 13 5 27 -1.</_>
        <_>
          18 22 5 9 3.</_></rects>
      <tilted>0</tilted></_>
    <_>
      <rects>
        <_>
          18 36 6 4 -1.</_>
        <_>
          18 38 6 2 2.</_></rects>
      <tilted>0</tilted></_>
    <_>
      <rects>
        <_>
          19 14 1 12 -1.</_>
        <_>
          19 20 1 6 2.</_></rects>
      <tilted>0</tilted></_>
    <_>
      <rects>
        <_>
          21 2 2 8 -1.</_>
        <_>
          21 6 2 4 2.</_></rects>
      <tilted>0</tilted></_>
    <_>
      <rects>
        <_>
          21 23 6 10 -1.</_>
        <_>
          21 23 3 5 2.</_>
        <_>
          24 28 3 5 2.</_></rects>
      <tilted>0</tilted></_>
    <_>
      <rects>
        <_>
          22 29 4 10 -1.</_>
        <_>
          22 34 4 5 2.</_></rects>
      <tilted>0</tilted></_>
    <_>
      <rects>
        <_>
          24 10 3 19 -1.</_>
        <_>
          25 10 1 19 3.</_></rects>
      <tilted>0</tilted></_>
    <_>
      <rects>
        <_>
          26 0 4 2 -1.</_>
        <_>
          26 1 4 1 2.</_></rects>
      <tilted>0</tilted></_>
    <_>
      <rects>
        <_>
          28 20 3 20 -1.</_>
        <_>
          29 20 1 20 3.</_></rects>
      <tilted>0</tilted></_>
    <_>
      <rects>
        <_>
          29 15 6 4 -1.</_>
        <_>
          29 17 6 2 2.</_></rects>
      <tilted>0</tilted></_>
    <_>
      <rects>
        <_>
          30 17 2 6 -1.</_>
        <_>
          30 19 2 2 3.</_></rects>
      <tilted>0</tilted></_></features></cascade>
</opencv_storage>
